digraph Tree {
node [shape=box, style="filled, rounded", color="black", fontname="helvetica"] ;
edge [fontname="helvetica"] ;
0 [label="gini = 0.42\nsamples = 6300\nvalue = [1890, 4410]\nclass = Yes", fillcolor="#8ec7f0"] ;
}